6.72591084
-9.73271362
3.94248869
-9.54805359
4.76152911
-8.16556853
2.04399461
-10.73116878
7.73421424
-25.16708394
5.34975636
0.21272222
2.32679431
-0.84739059
1.11328123
-1.17502014
4.23247867
0.08443547
1.70145586
-1.21202
-0.82876312
6.40105419
-1.14998306
0.5804469
-6.68667321
0.13810995
2.02970963
-2.84986623
-0.80201976
-0.69915064
-4.33105762
-2.24694905
0.29091592
-0.17630474
0.49151671
2.30642191
-4.08593914
-2.32661663
-2.49972809
-1.71098452
-2.03711754
2.15308459
-1.43149013
0.23454775
-6.97245998
-1.34342265
0.18264792
2.66644362
-2.64535914
7.63841155
1.89013508
-2.42266514
-0.19106876
-1.56835053
-0.45839379
1.28307172
-2.49548699
-3.76704486
2.35166882
5.27954186
0.41377633
0.58854857
-3.21014755
2.40403402
-0.07796924
1.93012293
-1.54102717
-1.32185491
0.62817056
-2.52104338
-0.42935798
1.1019674
-0.08390293
1.4558163
3.07897786
0.91886213
0.30820632
0.13208953
0.34358081
-5.92136082
16.15272557
-0.78011593
7.05806846
-4.69705063
4.12715559
-3.64658434
6.66612846
-0.74031003
8.06178953
-1.5471429
0.11137097
-0.1296555
0.36523825
-0.05764
0.44663886
0.36211448
-0.32452221
0.49869614
-0.12784031
-0.02375085
9.55338959
-1.8113719
-2.07378982
-2.02865984
-1.20734469
1.66002182
-0.26755512
-0.36290704
2.86576498
-2.78507787
2.95155615
-2.78474111
-3.38539047
1.2887429
-0.62054925
-2.17285449
1.70668551
2.00899115
-0.16272008
-1.95740236
0.39078451
-0.16884328
0.02687563
-0.17578239
0.12176745
0.33322857
0.09244433
-0.03723643
-0.03655125
0.11687964
0.24255815
-0.42305269
-0.02091809
-0.00781551
0.17484335
0.12331475
-0.12817615
-0.17222155
0.11972217
0.02978219
1.36931294
-1.12811704
-0.30886173
-0.26778485
0.13280301
-0.39601553
0.0208396
0.55283095
0.22996842
-0.33612873
-0.60377113
0.0031133
0.14877835
0.02056009
0.11719713
0.14977794
-0.17490437
-0.20129922
0.09900612
-0.59511873
2.06759231
-1.02845123
-0.65279981
-0.53740496
-0.04417317
-2.21322728
2.02348523
-0.16268087
-0.32486369
-1.70903385
0.07786896
-2.78437024
1.45552354
-0.03063796
-0.00846794
-0.71569241
-0.05071318
1.63433754
-2.00305578
0.04466309
1.99776215
-1.06233596
0.22491177
-0.06353304
-0.43512782
-0.17716117
1.42203891
0.47878899
0.13473025
0.31696193
0.03993367
-0.22765105
-0.11385087
-0.06029844
0.34877562
0.08093495
0.32251403
0.0829527
2.02091055
1.51589991
0.24083597
-0.03829087
-0.57037055
-0.27388393
-1.0882145
0.30042922
0.1246944
3.45474781
1.04668624
0.29952876
0.28280475
0.3698991
-0.04045438
1.12018897
2.60953076
0.02752254
-0.58768149
0.09355732
0.2597543
-0.03909865
-0.29591433
-0.24863344
0.12464232
-0.58688927
-0.07866861
-0.23927269
-0.35154916
-0.25725073
0.1032749
0.62736817
0.23594832
-0.19661091
-0.19101734
0.95463184
1.80112113
-0.02369294
-0.69765647
-0.95622344
-0.00854189
0.17334512
0.90268763
0.91085566
-0.77785716
-0.03379293
1.81741925
-0.92912343
0.01365048
0.1419412
0.90558145
-0.76079418
0.78451876
-0.01485384
0.75373965
0.76218796
-0.22863418
-0.00745495
1.46851349
0.689904
-0.957928
-0.03654657
-0.88472033
1.76718734
0.05085417
-0.15548144
0.72004942
