0.97715989
29.04200758
-3.66232774
13.87538458
-9.57963038
18.9261238
-12.91342756
16.30961136
-4.11219532
31.92251198
-3.79916254
17.86152167
-5.13944214
10.73633997
-7.16259183
14.43898535
-9.34917355
11.42838223
-6.23594877
29.49768997
-19.7627407
-41.42698098
-21.99472684
19.30861559
-12.40764593
19.54859805
-23.71301595
2.85058959
-11.31444988
4.60746086
-7.97874249
-104.41865589
-12.58425588
4.30319765
60.06089758
-12.03095757
-21.06301713
-15.57791295
-15.22603583
-12.07917719
5.96108386
9.69510511
7.03580034
-5.83431892
13.75946461
-6.53659616
2.68139658
6.18016515
-0.20912188
-5.97828524
-11.75304048
24.67782971
-14.67251037
28.87031217
-7.49273711
37.97595623
-21.33713507
-5.25814132
-2.60328939
10.93154408
-1.24441359
11.21702959
-5.58873097
-4.22036773
-9.55156053
2.81992204
-0.50532205
0.13774395
0.58031077
-2.96649293
13.21807847
4.15768224
9.58536736
-8.08378896
10.21578364
-6.16097354
8.40598512
-6.37377788
3.8937886
12.19764361
25.903526
25.1790308
31.36167429
-20.22626568
4.40401545
-16.98210218
36.0914972
-8.71205655
23.81238889
10.72023622
-0.32471472
-0.02798576
-0.50688021
-0.46381471
0.02694036
-0.05993236
0.1195417
-0.3335273
-0.52690459
-0.56311848
-0.59050079
3.28778401
-0.08758738
0.07478119
0.02371508
-0.44375204
-0.0065124
0.51041614
-0.1800208
-0.04595191
0.08217658
-0.35759579
-1.79688919
-1.18816083
0.60531494
0.20481523
0.00143899
-0.32326846
-2.16236026
-3.95563898
-2.98865592
-3.89454635
4.02694597
10.16170162
-2.55075265
-7.11197286
-1.35161468
2.00844187
-3.58996913
-7.82529735
0.67289608
-0.21759662
0.18010566
-0.05291468
-0.03493288
0.03839415
-0.20105517
0.33351421
0.18799348
-0.46021488
5.99969784
4.42892144
-11.47655877
1.03428761
4.71192798
4.00585794
-6.20723978
5.33717096
-0.1493207
4.95982304
0.89140199
-2.26382187
-0.04492378
-0.06161945
-0.0053212
-0.05408126
-0.01927068
0.14403499
-0.11410687
-0.16704816
12.51848391
11.62836585
8.26691505
0.62418343
-0.69886984
5.38946129
0.10229451
-1.27654664
-11.25919408
6.7190844
-0.03430098
1.63267173
-0.02874146
1.1631253
0.09340415
-0.57083148
-0.89608394
-0.0461679
0.45635404
0.02503535
1.28787587
0.98643047
3.07319698
0.04087657
-2.13600033
-0.15683996
3.26238298
0.29920432
0.39971826
0.22203183
2.64989455
-2.70490461
-0.17311736
2.35964455
-0.09858764
-0.22313246
-4.11493171
0.05780903
0.98780413
0.23319208
-0.14671579
-0.1951087
-1.31851925
-0.62951394
-1.32729211
-0.00178694
-0.28970319
-0.93816578
1.26904182
2.66720083
0.00354207
4.39666908
0.57201942
-1.62233308
1.13909337
-0.12892559
0.71596833
-0.05012725
0.23643264
0.05154928
1.19978439
-0.46576167
0.08705714
-1.29607536
-0.99533323
-0.61180434
0.18854467
-2.31091978
0.31930281
-2.17547142
-0.29854257
-1.86213264
2.46081296
0.27511118
0.68579355
-0.21280034
0.69929939
-0.4495954
-0.87511727
0.18429761
0.90585251
0.20841802
0.8925343
-1.11058485
-0.5431028
0.60391175
0.34092024
-0.37658748
-0.42217927
-1.22483121
-0.26235642
-0.28212358
-0.19830159
0.55768256
-0.62265431
0.15741019
1.18645221
0.1714155
0.08189304
2.07477998
-0.1480722
0.08669543
-0.08893857
0.14363276
1.82237396
